//Numpy array shape (11, 15)
//Min -20.7260761261
//Max 16.8548545837
//Number of zeros 0

weight_default_t w1[11][15] = {-0.142935618758, 0.040370002389, -0.0513738393784, 0.0119276065379, 0.0252789724618, -0.0408360920846, -0.0627165958285, 0.0678769499063, -0.076898701489, 0.0683054551482, 0.0185630377382, 0.0393223911524, -0.00278838980012, -0.0896813049912, -0.153717845678, 0.00960841123015, 0.162151992321, -0.0076109142974, -0.622652053833, -0.0264564678073, 0.0660426616669, -0.0887214615941, 0.0378843285143, 0.0170261133462, 0.031883649528, -0.45404869318, 0.00672013638541, 0.203516706824, 0.16791498661, 0.187175095081, -2.54321861267, -0.988911092281, -0.0360237397254, 16.8548545837, 1.37024760246, 0.1773878932, 1.42379105091, 0.0382097996771, 0.785309672356, 0.88515996933, 9.62622642517, -20.7260761261, -3.53455114365, -0.715662956238, -3.47773122787, -0.0122612658888, 0.00398807507008, 0.000362908904208, 0.00242160330527, -0.0137543464079, 0.0204467847943, 0.0108750090003, -0.0111383218318, -0.00859306566417, 0.0132396137342, 0.00507765682414, 0.0189639814198, -0.00134866742883, -0.00522761186585, -0.000230730191106, -0.0024560703896, 0.0010363276815, -0.00489669525996, -0.0116072595119, -0.00285207759589, 0.00113470596261, -0.00817707460374, 0.00309806317091, 0.0070701604709, 0.00500490376726, -0.00729110278189, -0.00923149287701, 0.000812605721876, -0.0112841716036, -0.00332634034567, 0.0011602374725, 0.00812620762736, 0.00350041501224, -0.00913981534541, 0.00580606982112, -0.00523889111355, 0.0029936672654, -0.00861926469952, 0.00164438923821, -0.00591268669814, 0.000369648565538, 0.099910132587, 0.00173214101233, 0.00437853159383, 0.00433634547517, -0.00038526460412, 0.00269341957755, -0.00101739866659, 0.000266386661679, 0.00299682398327, 4.1974864871e-05, 0.00413203937933, -0.00289385439828, -0.000967920932453, 1.11682638817e-05, 0.000653045077343, -0.171288192272, -0.000216657936107, -0.00116418593097, -0.00196925806813, 0.000589208328165, -0.00564968027174, -0.000644577725325, -0.00153294100892, -0.00184354407247, -0.000507093267515, -0.00683917431161, 0.000476896879263, 0.000871985510457, -0.00123955309391, 0.00209431699477, 0.0105354078114, -0.00394228193909, 0.00281775416806, 0.00201980047859, 0.00336708547547, 0.000881628715433, 0.00336548965424, 0.00571405002847, -0.00633096508682, -0.0004871339479, -0.00374834681861, 0.00473455432802, -0.000889681396075, 0.00171419011895, -0.0094153014943, 0.00482164882123, 0.00827138032764, 0.000895835168194, 0.00428859191015, -0.00284549291246, -0.00333524146117, 0.00562852388248, -0.00324169453233, -0.00596427172422, -0.00216546631418, -0.00121545197908, -0.00247275666334, -0.000448377628345, -0.0045669474639, 0.00823338516057, 0.0172488298267, -0.00473518017679, -0.00574978906661, -0.00568318506703, 0.00999322719872, 0.00602558162063, -0.00896878540516, 0.00590259348974, 0.00624761311337, -0.00666850293055, 0.0012268248247, 0.00122589513194, 0.01101728715, 0.00395641196519, -0.014917422086, -0.00144253810868, 0.0134855909273, 0.0113551933318, 0.00389202870429};
