//Numpy array shape [11, 15]
//Min -16.581796646118
//Max 16.673074722290
//Number of zeros 0

#ifndef W2_H_
#define W2_H_

#ifndef __SYNTHESIS__
model_default_t w2[165];
#else
model_default_t w2[165] = {0.079420, -0.144172, 0.055765, -0.036314, 0.042706, 0.020226, -0.096534, 0.053860, 0.038890, -0.025457, -0.019970, 0.009723, 0.145506, 0.045501, 0.048579, 0.001752, 0.124616, 0.001821, -0.117615, -0.049821, -0.070023, 0.029893, 0.052263, 0.025458, -0.072247, -0.350391, -0.033168, 0.162931, 0.003783, 0.153564, -2.095401, -2.115546, -0.471510, 16.673075, 1.395825, -0.663081, 1.707745, 0.254249, 0.322813, 1.242259, 9.831541, -16.581797, -2.700806, -2.330486, -3.460195, 0.040116, 0.026416, 0.019905, -0.028694, 0.010225, 0.029893, -0.017829, -0.037684, -0.025766, -0.018025, -0.010701, 0.012137, -0.019643, -0.006750, -0.003243, 0.006205, 0.000537, -0.002765, 0.005156, 0.001691, 0.001973, -0.000740, 0.002460, -0.011137, -0.011690, 0.000337, -0.012173, 0.000309, -0.003221, -0.001842, -0.010025, -0.009997, -0.001270, -0.066096, 0.000261, -0.015167, 0.009155, 0.002290, 0.010917, 0.008308, 0.002856, 0.088610, 0.008017, 0.008049, 0.001057, -0.001500, 0.003811, 0.000161, 0.067894, -0.006138, 0.001803, 0.001709, 0.002304, 0.002039, -0.004849, -0.000091, -0.159229, -0.002777, -0.001579, -0.000579, 0.002454, -0.009198, 0.002435, -0.038109, 0.004824, -0.001746, -0.003054, 0.000811, -0.004334, 0.007479, -0.001485, 0.004198, 0.007673, 0.003474, 0.001866, 0.000514, 0.005950, -0.004039, -0.063983, 0.000241, 0.006332, 0.002715, -0.000831, 0.002692, 0.001845, 0.001377, -0.006343, -0.007064, 0.000306, 0.000844, -0.005909, -0.010719, -0.003630, -0.049644, 0.002550, -0.014279, 0.007124, 0.003035, 0.001508, 0.010606, 0.003150, 0.006750, -0.001988, 0.000374, -0.005160, -0.003108, 0.005442, -0.010623, -0.002994, 0.001467, 0.001114, -0.025835, 0.004652, 0.011842, 0.011911, 0.001090, -0.003571, 0.010813, -0.000522, 0.010918};
#endif

#endif
