//Numpy array shape (15, 5)
//Min -0.0826978683472
//Max 0.0483499914408
//Number of zeros 0

weight_default_t w2[15][5] = {0.000259822234511, 0.00112332275603, 0.00127148535103, 0.00633869599551, 0.00706286448985, -0.000918821431696, -0.00464871805161, -0.0256355609745, 0.00437744241208, -0.00862842891365, 0.000117876712466, -0.0410525538027, 0.00805302616209, 0.000222101676627, -0.0221293698996, 0.00116876594257, -0.00146246654913, 0.0252488851547, 0.00609430065379, -0.00431353319436, -0.000147455299157, -0.00627121701837, 0.0163097847253, -0.00269047683105, 0.0011072116904, -0.000283642963041, -0.0114079117775, 0.00582006014884, 0.0108381835744, 0.00560520542786, -4.62981115561e-05, 0.000512840342708, 0.00517172226682, 0.000643147504888, 0.00349679915234, 0.000954714778345, 0.0030841617845, 0.0483499914408, -0.0206060726196, -0.00200054934248, -0.000612419913523, -0.0242883004248, -0.00981411524117, -0.00057612877572, -0.00413544150069, -0.000409564730944, -0.0115468185395, -0.000149395302287, 0.00512420851737, 0.00419449293986, 0.000368406617781, 0.0040559512563, 0.00923870503902, 0.0104425810277, -0.00505737774074, -0.0826978683472, -0.000778222107328, -0.00261837104335, 0.000829786935356, -0.000252230413025, -0.000184828255442, -0.0116099007428, -0.0183839481324, -0.00840592756867, 0.00726571073756, 0.000420926400693, 0.00678092380986, -0.000372387847165, -0.000262795801973, 0.0121053010225, -0.000139978103107, -0.0313789024949, 0.00719425547868, 0.0115346405655, -0.00963275507092};
